80
38
-3
-124
-54
42
-7
-73
-65
106
-48
63
34
-37
-126
78
60
71
42
-119
32
-47
-99
-97
-72
70
73
106
61
31
6
-109
9
-78
-110
-40
-120
12
17
-17
-103
85
-23
42
35
27
55
-127
-5
94
-91
-97
42
55
-84
-43
91
121
2
36
-32
95
-102
-40
-21
92
-73
58
56
-88
122
-32
114
-119
-21
81
117
-9
118
101
98
-124
-82
17
10
-106
-109
-43
40
-16
-24
-55
8
-36
-84
-120
-53
-103
-76
-29
-12
98
-86
4
44
-121
-31
-50
50
20
-3
23
-41
98
-38
-43
-114
29
-87
99
-8
92
-101
13
55
-75
85
123
-87
-7
15
-36
85
-42
-113
-96
-64
90
-104
-13
-35
16
-84
22
62
119
110
112
37
61
-10
-4
2
65
-113
45
-97
-38
-76
-122
-94
-93
-51
-34
88
87
-103
-71
110
-39
-61
1
-36
15
-57
-111
-33
-106
-1
33
115
-5
-46
-18
-19
32
-8
-128
-61
123
0
-123
-30
-80
80
-65
97
-113
109
-125
11
-110
-56
16
111
104
-105
66
88
-80
-49
-37
-3
25
-102
-21
82
121
-17
-6
121
-3
114
-123
-76
-88
-67
-118
-11
-26
84
-118
123
-71
-109
31
31
-123
-76
-20
-68
-123
-23
-48
-28
23
54
-82
23
-89
-19
46
-15
64
-28
-3
-2
58
112
103
-28
82
60
16
-88
113
-62
-97
-67
-31
-87
86
62
-54
-63
61
76
-91
9
102
79
64
71
46
25
98
43
-109
-34
-80
-91
-94
43
-71
-46
112
106
5
19
-112
-35
-54
-67
-16
-80
-94
111
-37
-92
81
-87
-76
-68
-33
-101
41
-74
33
-40
71
16
31
57
9
16
-4
79
9
-30
49
-68
73
-26
-81
-62
107
70
-23
73
58
53
-117
57
-95
117
96
17
115
-95
119
77
18
-38
48
-97
-54
-13
104
89
56
-108
18
118
61
106
-29
-96
12
-111
81
-29
85
-102
-70
40
-74
-94
-82
102
-56
90
-12
86
19
-97
-50
-86
41
-56
-26
94
85
-101
37
6
5
98
-117
99
106
79
77
-2
97
88
106
-122
-38
-6
16
23
-111
111
-84
-9
114
-106
-101
-57
49
120
-121
111
-14
-109
-97
30
-95
0
-9
-63
107
-65
-53
47
-46
71
-49
73
30
87
55
-7
100
95
122
116
-82
-65
101
52
112
24
18
58
-75
97
99
121
25
119
3
94
36
30
86
47
110
65
-4
-74
102
47
-61
57
3
49
-42
89
42
-75
-14
99
-74
83
69
-65
43
-32
-112
-29
-10
-36
98
27
8
-118
-107
-75
-113
-109
40
-106
101
56
-47
-31
42
-42
28
66
-8
2
14
6
-125
-29
102
-83
125
-37
-112
54
-107
-41
6
-83
125
-94
96
-84
93
-113
40
118
-38
46
-119
74
-63
124
89
-1
-124
111
-99
53
72
-103
57
-124
20
82
104
37
-62
99
-101
79
68
10
-45
6
-80
-72
-25
28
-72
6
-14
47
-3
74
-43
-88
122
23
31
80
1
-20
103
62
-39
-97
73
-83
-28
89
89
42
-88
34
-76
-104
-33
-124
56
-9
122
-98
-44
118
-84
69
83
86
7
32
-35
56
-29
35
-29
18
-75
-40
99
52
103
-52
-42
36
-19
1
50
-29
92
-35
126
-101
87
3
23
123
58
-124
124
13
33
26
-76
-11
-50
-34
-114
-67
23
49
125
103
79
-123
-64
2
-9
104
-121
-15
-48
-24
-33
41
-17
-49
-64
24
13
115
-38
84
97
-106
45
-125
-124
60
-20
123
94
95
-119
36
119
-21
-82
-1
-83
-80
28
-73
-51
-60
-107
67
-120
-66
88
-29
-66
-24
-68
69
-99
10
100
-56
-40
-36
92
21
34
-64
94
-24
88
-59
-101
28
-77
97
121
-1
-39
32
-30
66
102
71
11
-52
-81
37
-30
-112
76
-5
36
102
29
7
95
-18
52
-33
3
108
54
-93
-123
49
109
16
-82
-85
49
28
63
-25
-50
38
-82
-10
44
22
23
-46
109
-53
86
26
27
51
112
-52
-18
-81
68
105
-107
-78
-38
72
96
10
-94
-80
-125
44
-87
47
-4
51
21
-34
-124
-60
-73
82
-111
-3
-57
-65
107
-11
94
1
26
-93
-81
90
7
34
13
-65
26
102
120
30
-68
-59
-99
37
-17
5
74
80
39
-106
15
-36
45
43
38
-30
36
-70
-83
29
115
-57
13
41
-124
69
-105
-105
44
10
-49
-120
82
50
-114
115
26
-1
101
4
92
-20
-50
120
-97
57
-83
-53
-110
29
73
-66
38
94
-15
89
47
-113
66
-5
115
-23
76
-20
-49
-78
30
67
-7
119
13
107
-51
81
-85
-29
90
100
123
42
47
-120
81
-36
42
-59
122
-35
-127
-19
50
16
115
-77
109
76
92
-86
83
-99
-16
-109
-4
-104
-45
33
122
48
14
122
-24
10
55
54
-128
-119
-83
47
-65
54
-35
-114
-127
53
-25
-52
-103
79
-91
-16
-92
102
-115
11
-47
42
-61
126
125
-97
-53
-20
-48
110
25
-35
-120
19
111
-90
56
-72
96
35
35
0
-32
-14
89
54
45
0
84
38
32
85
-56
23
-45
91
-113
-94
125
59
-34
27
-30
-9
-48
-113
-67
119
60
-25
107
19
86
-110
96
8
2
-117
-120
46
-5
-122
-77
-45
-63
-33
21
119
-42
119
122
-86
-45
1
94
114
18
-34
36
-61
1
-52
-8
-35
-57
-7
61
98
16
125
-91
6
-83
-73
57
-110
10
-111
62
-81
-100
-23
27
55
-21
-55
-18
4
-8
-32
-108
-72
-112
79
76
27
90
42
-10
-57
-39
61
-49
-38
-87
-82
21
-43
-99
13
-28
-122
64
111
-50
-84
-68
-43
-63
-77
-32
-104
-17
-70
-97
-116
-16
-9
53
-82
48
-95
59
-45
43
15
-81
-42
-123
-74
100
-79
-43
-6
-83
-21
73
2
71
-26
-96
77
-38
-113
23
-78
69
73
-77
-99
85
48
33
-74
-68
-104
12
-46
-90
72
89
76
-121
125
70
58
-65
-93
-5
-10
-35
-45
3
-29
-84
100
-102
27
3
107
-117
117
-53
43
65
19
-115
-79
39
-1
121
-45
-111
2
35
-31
-109
-51
-40
67
-80
49
47
-2
6
93
25
-9
-114
38
-5
103
84
126
124
103
-17
4
117
117
108
116
71
-12
81
-95
-93
-26
-30
-43
89
45
-57
-58
-76
-36
114
-68
123
-117
37
106
-112
-85
-96
-9
-21
-96
-76
-72
39
19
-33
8
-3
84
-23
123
-22
99
-119
-62
-125
-69
-34
-50
-55
41
91
-83
122
38
-31
102
12
71
-27
-6
-45
-56
45
88
31
85
-37
90
105
-106
119
-23
-127
105
67
-21
30
0
-90
-20
-14
28
117
-87
70
-7
-8
-74
-64
30
-83
10
0
73
-123
-24
-102
80
125
-59
-114
102
-107
97
-110
-1
118
-23
-57
-8
21
54
-25
8
81
94
-79
-8
39
78
61
39
47
-128
-60
-50
44
-27
-67
-47
42
120
118
-107
92
84
-17
-57
48
-118
92
110
-112
-26
49
5
-8
26
47
115
7
73
11
-103
-9
-103
-124
102
-93
-76
123
-101
45
25
102
55
-73
44
-66
17
-43
-127
-23
122
60
91
103
-93
18
-52
-2
19
-83
11
106
-44
-60
-11
-21
70
71
-76
-62
83
38
105
-20
-105
40
77
-47
-79
-118
111
-95
-75
-8
-65
-109
-56
87
51
-3
4
-10
22
-77
125
51
-27
106
-25
-118
29
-122
-96
69
-124
-90
-45
-116
-20
-2
17
62
67
46
-113
45
-10
114
-43
-63
53
32
113
-43
34
65
-94
-20
-58
-126
-126
101
89
27
75
37
117
59
4
30
-76
40
104
117
112
-103
-85
68
-44
-17
-97
-75
-58
52
68
1
85
44
-105
118
-77
3
-40
27
55
126
-74
-90
100
77
-100
88
-13
61
-120
28
69
48
-110
29
-88
96
-82
84
19
61
-128
-100
84
71
23
-102
-64
-13
29
116
-26
-85
103
-123
99
121
-120
-9
69
-67
-66
-23
-58
-125
-64
-27
-62
-4
-65
-73
111
91
-116
26
-123
56
-67
-90
31
14
119
-85
103
87
21
-22
-9
-19
55
-46
116
-111
-31
49
-84
-78
-43
53
63
8
62
73
7
53
116
12
59
-35
-64
-68
-88
66
-87
56
-48
67
-2
69
-5
22
-99
66
-91
97
-89
68
-16
126
-65
5
97
-29
-87
38
-52
35
99
73
37
67
121
-40
125
-89
-108
72
-51
5
75
-8
22
84
-125
-34
41
76
-9
-13
-11
-34
112
-115
87
39
125
-34
-26
-6
79
4
-68
62
125
-101
78
-82
82
-28
79
126
-74
-46
-82
-48
-112
69
-114
-42
34
-33
88
92
-64
79
119
88
-87
-50
-65
-59
0
82
118
-9
-104
66
40
-20
115
-61
5
-67
10
-113
-13
-40
12
77
-47
104
116
6
103
-55
-45
108
-72
-112
91
29
-77
-54
17
-99
-116
-70
42
-2
-105
83
-3
36
34
-33
-5
50
60
-12
6
15
29
16
121
77
125
8
-83
-80
115
-116
19
-78
-88
-79
-3
95
17
24
-118
-61
-61
-68
-113
-14
-32
-107
8
96
-22
-127
21
-116
-72
-27
99
2
-48
28
60
-1
-2
-112
-99
113
-101
-47
47
-99
125
-94
98
94
-1
99
-4
68
-27
53
9
60
-68
-47
-107
-18
9
58
-57
-21
47
60
-28
89
-97
39
-92
32
93
-117
-127
15
111
29
-115
-115
34
80
87
52
-52
47
47
35
14
-103
-2
30
-47
96
-8
112
111
111
-126
-83
-31
-55
94
65
-79
46
115
-60
-116
77
89
-123
-116
-97
6
76
51
-20
10
24
-36
-88
-75
-7
101
-10
-124
-18
11
-113
-3
7
-51
69
55
-111
-3
75
-59
-106
45
75
1
-21
-52
47
117
-89
-112
82
22
89
50
74
24
-91
82
-43
60
121
3
116
2
-17
-127
-106
-73
-3
7
-115
22
-128
-18
-73
82
-126
6
-121
-101
-95
-119
101
94
-79
76
-3
-12
1
-25
-37
-66
69
-85
92
52
-16
-107
111
6
-113
12
-126
104
-34
84
80
-117
62
119
-29
25
-83
2
94
103
19
39
45
4
26
-86
-78
68
32
-54
-26
-79
24
-54
13
105
109
54
33
90
-33
-47
83
27
110
99
67
117
13
117
99
-62
-14
33
33
-69
60
-51
95
-87
111
8
111
36
-15
117
-107
-45
22
8
108
86
-16
-84
-109
-62
3
75
-37
-84
-57
53
-20
3
-97
-4
-22
39
-43
-6
-113
106
-30
69
-53
-96
-63
36
36
119
35
-103
-44
-6
37
-84
76
23
-50
17
-18
120
-35
-7
89
-26
34
107
-32
53
123
88
-83
26
-35
-52
104
-38
37
-4
94
-8
59
-124
94
46
87
-82
90
33
103
-45
-122
-14
-121
23
25
-123
56
71
86
-122
46
-6
-64
55
44
-4
-86
-91
120
67
36
-25
11
-74
-22
72
-123
99
21
75
72
-78
54
-6
-106
-108
122
-3
64
82
73
55
-98
51
-47
-123
24
-116
22
-67
-90
91
-99
-82
-66
19
39
-120
94
117
-106
-117
7
-3
-13
44
-41
-47
-22
-112
0
99
-13
67
8
47
-79
121
-49
114
-27
-87
-7
67
-39
66
78
-72
-65
57
-13
-72
100
114
-83
41
9
36
-100
-51
41
-109
-37
-61
-82
62
-23
56
-31
-2
-77
-85
-53
64
-34
20
52
85
-62
0
8
37
-25
-87
-33
-35
-115
-65
96
46
-84
15
98
-82
-91
-70
10
-63
113
66
-67
18
123
125
52
116
62
-73
-73
85
-32
-28
3
37
-31
34
-91
-4
7
-101
82
69
15
-124
-81
-61
98
108
-113
-44
-43
-50
114
113
2
-86
-88
-86
-115
-112
39
-9
101
31
-50
-78
108
-119
-114
96
-72
81
51
60
-81
-111
103
-88
-25
87
47
7
11
41
-3
124
-32
98
12
83
-57
97
41
47
-126
-86
54
-53
-51
-34
17
27
-66
-120
92
2
-113
-42
-28
-118
-52
53
7
39
80
11
-128
101
30
107
-99
-54
120
57
80
-31
-118
-50
-18
105
-98
-84
-8
-63
-118
73
-102
-52
62
-11
34
-65
-46
56
-7
-91
-59
20
58
119
-60
67
1
4
-120
45
-112
-21
93
101
18
38
-125
-85
85
89
22
84
10
-111
-20
0
-68
-66
-122
96
117
-69
113
78
-52
68
-94
-14
-59
-20
-14
-83
73
-37
-49
-17
-12
-77
-84
69
120
-66
112
-79
-72
-18
-49
17
-51
-1
-24
12
-13
88
81
101
107
16
-38
-30
-84
-34
69
